0.04936447824364617,0.009719936708111044,0.009682245400575643,0.002003747470313847,0.002013580744018152,0.0016219424914193648,0.005113970493192317,0.001993038760348273,0.004976807560149151,1.7012728239685544E-4,0.001610359690922284,0.006926341486095169,0.0011766147883773303,0.0028786680497017514,0.001355971564330859,0.005920264355312589,0.001119567062426996,0.005930976860527157,0.001224153101197355,0.001888602344987258,0.007441940918471295,0.006073837214580797,0.001964791109136938,0.003634185223704485,0.004872856213673654,7.64626256630906E-4,0.002328717799721145,0.005015304164367221,0.009227734591741404,0.009480843769611487,0.004504747316895466,0.003082325909578043,0.008175316603097556,0.009666676093341587,7.287027676741141E-4,0.004085573377175153,0.0027174503527793306,0.00663238434795095,0.0020494787298333227,0.0034253236335820884,0.007008703592312955,0.007961651748949786,0.009585275462330992,0.0033404575373805205,0.006170745166937263,0.00938627585538009,0.005132501821990075,0.009889806883075584,0.005956917323489767,0.0010062159990219788,0.0029526560919402784,0.008938242761089146,0.005614788510449055,0.009220042964748045,0.006667412936871337,5.776552059543906E-4,0.0073893348353660055,0.006259729401698897,0.008695678068195465,0.007586591984652334,0.0018887404587381751,0.003589871162999253,0.005492373398484633,0.0025192323914212645,0.005690186524076708,0.003253245572430819,0.003647715368071361,0.007746104950127209,0.008370795771871576,-4.428314859896278E-4,-0.0035450539529990072,-0.006886841501829992,-0.0028061048565981976,-0.0042774016569214575,-1.8498631847664227E-4,-0.0056973916290099826,0.004176398590091363,0.004722484713709738,6.113183059329582E-4,0.00997433243292223,0.0039829878814414445,0.005946718142875208,0.005853398027702686,0.00890581732128373,0.008686534634771958,0.005069945912246855,-3.7083044032432827E-4,5.674423298816409E-4,0.0012609452801437898,-0.009516369702538476,-0.0059564651229237035,-0.011736761400085564,-0.016708897933368865,-0.016740011703277952,-0.021575555336496587,-0.0015577586906190142,5.213384977624742E-4,-0.006228594139418013,-0.009586132976524662,9.252797973561153E-4,0.0012312255283511786,0.009667669151498463,0.00604011546163178,0.007485043374954914,0.012990723542081143,0.01017522593673192,0.004335914755173201,-0.0018515083317756074,-0.013113681492617409,0.006642726145863275,0.0012138726955700672,-0.016230807389420544,-0.008302822760437738,-0.013408227063767469,-0.02446310680644256,3.2522927786737956E-4,0.028308297283308245,0.019854443496116325,2.56939632946409E-5,0.00854603514655771,0.006552548902424704,0.0016786050012975407,0.0040118194562428966,0.003560105396160975,0.009552276117030746,0.013986004751638128,0.004651611786735913,-0.005633664023786747,-0.017441098473963388,0.012068348554321042,-0.0017925662315810612,-0.012885639611470554,-0.030964001789525068,-0.007492986831263701,9.203401590067619E-4,0.025293197852400487,0.0369107760408601,0.024129413164059713,-0.005714696353826766,3.554592268378337E-4,0.0048742953389082555,0.009224070759208508,0.004991456227852909,0.006517805648269445,0.011435749736862288,0.008405322430990736,-0.008365529532698918,-0.013366174930211387,-0.0010714722065283825,0.037226202363724176,-0.017967482129916917,-0.0544498615185567,-0.0634261839648306,-0.05008236010726513,-0.016860641531424605,-0.0019300455459388272,-0.010473589366840048,-0.006652929262848947,-0.010164008630463156,0.004340919064619503,0.009132468248959342,0.0016322720345905873,0.004524977360260085,0.004951115171079815,0.011825117085365388,0.005917305993675914,-0.006441708926307135,0.013558320674015748,0.015864479198401348,-0.0077401508217228255,-0.033264836836970395,-0.021353298196349343,-0.011173325148237882,-0.017311588759415162,-0.012962223168943023,-0.010712616806440785,-0.02639666010068888,-0.025237332365464236,-0.015370240616118613,0.005084750710943913,0.008161267978036658,0.0014750672704937373,0.00942657256348004,0.008754388385180698,-0.008287398009235385,-0.011928023760590382,0.011502941335415181,0.028536550034235147,-0.0068458601175445544,-0.01412098560286218,0.02645955004208453,0.04486517613557498,0.0695046946214719,0.055041840693707614,0.07631963226777315,0.037540519421508364,-0.01704646435009458,-0.041662676571106456,-0.014359517165465388,0.008559953207684826,0.00549586925366674,0.006650365593011093,0.0062918446835070726,0.009106546736819219,-0.044775317615709964,-0.020004572666368167,-0.0034006353334667776,-0.01494900266881554,-0.0016612713227711917,0.01967381668056867,0.07209100881298229,0.10076509993297628,0.08308702833614676,0.03658936351859228,0.03998185532732218,0.037505470101368885,-0.0037122002385321963,-0.020814075324147956,-0.004748605651675273,0.006217275713339616,0.008290965804061754,0.007345973097607825,1.0955474853348659E-4,0.025621475670950838,-0.01040775042421547,0.00431709955822854,0.01012962370381595,-0.0031916291294223813,0.010362011411322382,0.04041120857239108,0.04176978931789757,0.025717693961668318,0.0074911776544698905,-0.015163270061039246,-0.029267354418391022,-0.025426649575864557,-6.330085255152041E-4,0.006707503110476743,-0.004653986296094676,0.007254990963146989,0.00975651589230115,8.380720502775962E-4,0.0011459742022708818,0.01920432166280401,0.023674729208097635,-0.0141446980819632,-0.020246842369993377,-0.006220016671250926,0.006150903269842741,-0.00476275830212104,-0.01142883219117403,-0.02744738456521767,-0.03715862552108745,-0.058465583328114606,-0.03169366076625712,0.02449754615430398,0.02514001985794849,0.019933310655000425,0.019946980158235813,9.798057596059155E-4,0.006828798350897251,0.0026341645239179668,4.2412852005500906E-4,0.002348639581259684,0.02137197570402898,0.024372988215408415,0.019619188034969343,0.013753941881493283,0.00937048593832903,-0.019530690884224596,-0.009103264979567439,-0.01727616354577418,-0.004435811774680275,-0.025732074596959073,0.0025346025713416293,0.04030238172054611,0.0049120846290909535,-5.650293898922481E-5,0.0016193646964850308,0.003844469689937598,0.007164835269208168,0.0045894415286484545,0.009286507932429054,0.007728792791413651,0.005377922686964177,0.010430507915783137,0.01988460643884491,0.007993637221140777,-0.008816687477794702,-0.027821376973746793,-0.025421499632489627,-0.0153245784163873,-0.016042640545687336,-0.017328322653415242,0.01808071587232352,0.018317067361017583,-0.007955583308610022,0.0017085666748806701,0.004185319710204823,0.001274561378613235,0.00587554146884491,0.00930719155810114,0.005665708603818894,0.004500755392688688,0.007148457118866444,0.00441293447662021,0.014255189136272942,-0.01740392830703906,-0.02624057993058274,-0.020960708160192475,-0.0121768874284859,-0.012005175736054764,-0.015689594572825427,-0.026074121525143865,-0.007057100584359651,0.0012227525677066104,2.990116346945775E-4,0.003964116802454962,0.002995248029661862,0.007179479669627245,0.0030429182367395125,0.005377993064440608,0.006105583508419059,0.006822776736683273,0.008832701054861973,1.238647373535679E-4,1.772328089010532E-6,-0.008782867938733447,-0.023925716942787608,-0.0178136226449412,-0.01850241213563324,-0.023897262752919996,-0.02162568702407755,-0.01284277346776672,-7.083279689293244E-4,0.001955193308718825,0.007556173398309719,0.009056170631619747,1.2025782488136818E-4,0.00836566601925728,0.007448350004927653,0.009819080349874002,0.005951810577975163,0.0026914529429920477,-2.406836333719162E-4,1.6434616216133648E-6,-3.445850531156529E-4,6.8223369759148E-4,0.002542907858035595,-0.0068163492199284385,-0.00961500327664937,-0.004218286861746895,-0.008790724632660993,0.0028103493893258,0.0045745580774860005,0.007568584836839795,0.005980867168653073,0.008383760411701198,0.001809484075496651,0.007953429035192396,6.528598154099774E-4,0.00244441533041585,0.004967806068410712,0.008610842942544472,0.007928293583688408,0.0029549166026381353,0.005829219884760438,2.255866316012105E-4,0.010897786603871135,0.003755075108523658,0.009200635850354185,0.005706818834489349,0.003556328798922423,0.003149679040406333,0.006294396299452184,0.006446323764587172,0.0012306144277694669,0.0014557719558498368,0.004300576839313934,0.004005941390992572,0.008187199549495424,0.001827633522281259,0.007981734677326383,5.033466976938417E-4,0.0035425866533397316,2.4195832396665035E-5,0.00764929550419847,0.004064030147671222,0.008528686761217829,0.0070475126959182975,0.001963246440344682,0.0012755318388162121,0.008122110385502021,0.004778274534229328,0.005987874274928893,0.007558379533947208,0.007495234939976603,0.0036206817739811805,0.0020878481489024036,0.001522880942866266,0.0013508499813566887
