0.8378577010767853,0.0020779388193092074,0.007931466555351312,0.007994203773438069,0.0075526320575904984,0.009470001161689688,0.002694919805277951,0.00847246364289862,0.004335917873067949,0.008879173944416537,0.007902947110748569,5.092843528881763E-4,0.00670255320315635,0.004544134275562542,0.0024577202352641324,0.0023177866529685,0.004284083689052005,0.0038486047980052797,5.804594049769285E-4,0.003908568328236914,0.003195548180784076,0.002903303106893994,0.007766729138096218,0.006755217666196644,0.0032704716720781436,2.2651320572801326E-4,0.001344962852508741,0.0010513519288767844,0.0060145493444998775,0.0015096225349595302,3.578132017139958E-4,0.0053160098791762735,1.1999111299242052E-4,0.003266622583579333,5.94445862785186E-4,0.0027256777334256264,0.003016856094824632,0.005235546313449112,0.008820255550211343,0.002824362311254016,0.008177838030444121,0.0025862734396225697,0.009881699251331562,0.00850315368412818,0.010129806411146504,0.005852899818678084,0.0032537215487178097,0.005743206367943347,0.008221077226967001,0.0039805296032481945,0.00583300764992727,0.005986981211570749,-0.0017351618196950113,6.164750243443523E-4,-0.006748369782213313,-0.005146019144248434,8.02281855613247E-4,0.0039628308316793474,0.0037220781603049717,9.980402981934326E-4,0.009658156048446912,8.78802249957169E-4,0.0036759796808815857,0.0021972239438802755,0.0054220494251130446,0.0055676551402265234,0.008679089218879086,1.6962063092890642E-4,-0.009700116728249001,-0.045103281300354965,-0.09772839793248544,-0.1418465113489361,-0.17577414584784448,-0.1539176440664046,-0.13811762529234775,-0.10839233196273448,-0.08496789584835389,-0.050330847324229946,-0.05743072717993397,0.0037907711042043423,0.0010669411092931803,0.009250676306764861,0.0038291664044824165,0.003508463247651399,0.01760948133433955,0.05779479129516032,-5.697826595059354E-4,-0.055389916078974685,-0.12350684229873739,-0.2084085997583407,-0.1958767369340978,-0.3649731556500917,-0.4399592599050454,-0.3675766454472117,-0.412421553150263,-0.2261878785760112,-0.014345406792672908,-0.12882682390528669,-0.11045348229210068,0.004983639209721988,4.1699065153473574E-5,0.004866895270348539,0.004304055152249624,0.010858317048376163,0.10088138505604462,0.13525302546131024,7.593655099209176E-4,-0.10561104885665196,-0.2336809121762445,0.023995851553591355,-0.060914803394101984,-0.3938015230758171,-0.38636905021709633,-0.3840995882692503,-0.5189543498147042,-0.2197127754683504,0.3629109758437345,0.21945254868537908,-0.08440308827748678,0.005867476191958904,0.008461619505820025,0.00763810470783434,0.002356811060505235,0.012055770372760339,0.13371403554494007,0.1637096227889138,-0.0022962390138664968,-0.14725495811840483,-0.2844741953471881,0.08350112050292917,-0.17761604734468234,-0.4216799359677016,-0.5999159700291616,-0.3529170954475184,-0.1786853336285698,0.1975672456585928,0.4151188677481589,0.28043441639334105,-0.05891078502751595,0.006593883286306597,0.006405055923989027,0.008856349551855793,0.00695475418477088,0.010655958432532297,0.10010016439545305,0.06789602533036503,-0.17098278781686985,-0.26172691900103673,-0.10761149776448425,0.25672186738884895,-0.4404049384236926,-0.9450456806628653,-1.0277487162799805,-0.8247279431706415,-0.26233908529937666,-0.13253874446011119,-0.29202592715985576,-0.20016182422807793,-0.12515561072502512,0.005314070260619869,0.00943366906187775,0.004313181889450521,0.0025167504681777374,0.05203709560435456,0.1154615669053197,-0.045441302793006864,-0.12458665373929834,0.039803117304925,0.0941529323169859,-0.2497990987435322,-0.6088214237983497,-0.47993637445004855,-0.2796257959450892,-0.2228210924621242,-0.0858514297241692,-0.19856711553331863,-0.5011841260871676,-0.5249306969451014,-0.2668146874501417,0.004853006973950465,0.009033609012221411,0.008244425882545672,0.008711614745921489,0.04391822429577246,-0.14133737561223628,-0.1525927440462929,0.03503313146626176,0.2885861752495772,-0.1600480544364606,-0.18057910770956268,0.39855780023069515,0.782939461014582,1.1943789345250424,0.9328519047841383,1.101379183650648,0.45573785629633895,-0.3352855484927263,-0.7273055844080183,-0.27520677755621353,-0.005085647801147842,0.0032679635899926286,0.006955659284320285,6.102392105805461E-4,0.03506521321691927,-0.5966108615893484,-0.31869397341717237,-0.04160517497989874,-0.16471237880566672,0.05430097893316484,0.443569395809313,1.3528198646120684,1.7309047733122445,1.5375882047499128,0.7408671504973825,0.6389371942760339,0.47602013500380586,-0.14037239630602907,-0.3544344462679865,-0.13232585990734758,0.004671237076011135,0.008532018582992058,0.0025547462724999515,0.008132721137610812,0.3107414418893558,-0.20126495238589467,-0.03711012624687379,0.10199965189684065,-0.12603486509506628,0.22960776975589783,0.6662828264522446,0.8353563037545856,0.5054607167267463,0.1222829933391254,-0.21800003644416646,-0.45729594590071937,-0.3778019780930779,-0.06952976715990992,0.08279324050284287,-0.04286470605708643,-0.0018137980564481577,0.003073408095350312,0.00785251604760234,0.0048163469208325,0.15140881445199347,0.2939868724932746,-0.23236916977470218,-0.4296994421418025,-0.171783521786014,0.022303066150618278,-0.044052415530053075,-0.1435040044207981,-0.5197828586874668,-0.6319707158821711,-0.9420808122064545,-0.5950760209825567,0.13705054928535787,0.22082784227761826,0.2590172663680362,0.1739104116427901,8.272116991355892E-4,1.4539773932119334E-4,0.0031899496831694196,0.00895342779594371,-0.03772295196959268,0.24591153818908723,0.2324834488365193,0.1526689869119978,0.0755943296670704,-0.043654720185090666,-0.3746742882696927,-0.308532746062081,-0.480299814483907,-0.3334397153483626,-0.5535301640707754,-0.1329450621009863,0.3943027417664898,-0.017783836805034665,-0.08818283534772879,0.006762280931898388,0.008724127970732272,0.0024133306572956203,0.004710001996152806,0.0029975478499801047,-0.0017864169939426397,0.08022529324882223,0.08306552162176006,0.14081663580107792,-0.02681777948216087,-0.3656432750477916,-0.5487310476870031,-0.5305869998792428,-0.4654054474199116,-0.38100949940557294,-0.3572710539607132,0.0948744443823242,0.21209744006117373,-0.1308696028561659,-0.04400455759160431,0.031741931767535474,0.005550479722861639,0.007492632010922046,0.0014144521363620378,0.002149925359403298,0.007473951790328132,-0.010518588346918632,-0.005911104177110231,0.05151188737030032,-0.39163696548019256,-0.555657300097755,-0.4377723003572418,-0.38189699546507594,-0.29148802362446125,-0.383149813419468,-0.46666318257535083,-0.15409479558455497,-0.04096223671709699,-0.0877269978613264,0.016569196947136475,0.016300799177407507,0.009615595989351727,0.0037030084669963403,0.005230941256858444,0.009581486530313753,0.0012072885215978029,-0.006887049849435471,-0.0062928160072175795,-0.050477217144014416,-0.21759157282264158,-0.42235762186050796,-0.4111976455675387,-0.4050898290756728,-0.40548156667504787,-0.4302294035877055,-0.3347277698313312,-0.13561324133288144,0.0015424882312992925,-0.007486525885409003,6.425968674380576E-4,0.0017117054135391936,0.005725195665248618,0.005434477756881888,0.004262621300635166,4.2607017339019556E-4,0.002657212074781079,-0.005525632960558501,-0.010966420439986814,-0.016067019515914188,-0.028989958361756146,-0.052304730527564514,-0.1489646594519357,-0.21306296429643323,-0.2258118108634647,-0.17412643411273765,-0.10053999537112131,0.01544814060832628,0.09401585352339509,0.02293558031819047,0.0013009835052227498,0.007896962546241075,0.009644429233299777,0.00897917320647691,0.004402606218913216,0.00817704656848856,0.0031472108607466065,0.005629683583580682,4.171489856973861E-5,0.008372656442043918,0.0010525157341841538,0.05141652404722952,0.047275826104430575,-1.5997611399808124E-5,0.008255501344565524,0.0034903165195962114,0.009138466982333176,0.007067422714533637,0.013792299805772961,0.006347862433190392,-9.156138509744807E-5,0.009530359879548582,0.0032907516215565425,0.0050716283087657785,0.008567678372323584,0.007512448158192952,0.0022384971176074085,0.0018706982479812378,9.652605018478634E-4,0.0016868521382873937,0.008845692582033375,0.005091466826101146,0.005127130133520654,0.0051450352818825,0.003389861704701802,0.007141194965262899,0.002296893671006887,0.010382959469326545,0.00620115972454312,0.002835904554388102,0.008219035598318365,2.2835627598677633E-4,0.007803478942547225,0.007323998721761534,0.5544496482283439
